,1,2,3,4,5,6,7,8,9,10,11,12
lead,1.0,1.0,1.0,1.0,1.0,1.0,1.0,1.0,1.0,1.0,1.0,1.0
10,-1.8950688433365224,-0.0452015195509623,-2.136437648286822,-5.587505270565999,-2.360111945480532,-2.085361950436688,-4.1583428363880905,2.3499803171910063,-0.9567201918170136,1.8899545388191288,-2.448049067562529,-7.04432055876311
lead,1.0,1.0,1.0,1.0,1.0,1.0,1.0,1.0,1.0,1.0,1.0,1.0
11,-1.305860698707203,1.9924189460114925,-7.126805628974831,-6.942029144820616,-2.5176932425930367,-0.5669562871911856,-4.6858182162352815,2.7836662155961966,2.074448239410971,0.9114779588899048,-2.4474536813798724,-8.638665691009725
lead,1.0,1.0,1.0,1.0,1.0,1.0,1.0,1.0,1.0,1.0,1.0,1.0
12,-2.017080389409259,0.6258301102221698,-3.7861080033246415,-5.839222404712243,-4.351643673277352,-3.309347245512703,-3.100297902245771,3.3942574069312657,-2.715110306071524,0.4272198421601682,-1.2394026652020749,-4.209138727397693
lead,1.0,1.0,1.0,1.0,1.0,1.0,1.0,1.0,1.0,1.0,1.0,1.0
13,-2.6420007901811577,2.3797794557153464,-2.3683197599799524,-7.695042378691966,-4.586750755664388,-2.3532696644408744,-3.0210778971814203,1.5825159203378012,-1.5704410146508054,-0.3470982201016969,-1.8387239467957035,-6.059506205649775
lead,1.0,1.0,1.0,1.0,1.0,1.0,1.0,1.0,1.0,1.0,1.0,1.0
14,-5.69777354580335,4.82901116943462,-5.410647518402776,-8.746007435801094,-5.524834550560427,-0.6592097115558913,-5.076069485115111,-0.9663668939804382,-4.039792170230801,-1.4599872979202382,-1.2916764931121132,-9.672354431628763
lead,1.0,1.0,1.0,1.0,1.0,1.0,1.0,1.0,1.0,1.0,1.0,1.0
15,-2.203126307456565,1.968695959061232,-2.075530496944918,-6.9747401942246166,-3.25711412562352,-1.7720470588971,-1.6907903301930651,1.6872687923350504,-3.239362765421365,-1.1553197484210818,-0.6264300068483155,-5.05371793583915
lead,1.0,1.0,1.0,1.0,1.0,1.0,1.0,1.0,1.0,1.0,1.0,1.0
16,-4.919066741295316,3.7585665756164457,-2.285390538916418,-9.32825233319111,-5.662215608225533,-0.698448531527342,-4.925277440587815,2.908784036601128,-5.727094276089557,-1.0498982774289465,-1.1108417470630676,-8.263613125539772
lead,1.0,1.0,1.0,1.0,1.0,1.0,1.0,1.0,1.0,1.0,1.0,1.0
17,-3.041460987378457,0.6609041220736444,-0.871380409234794,-3.750364005516152,-6.885720075568815,-0.10783401073039,-0.6779502565758062,4.486293496411291,-3.571680427115949,-0.9065841894800036,-1.122541611581272,-6.108653319522572
lead,1.0,1.0,1.0,1.0,1.0,1.0,1.0,1.0,1.0,1.0,1.0,1.0
18,-7.200356359830693,-0.535684892726569,-3.058724045132455,-1.0741387573845045,-9.967605682929898,3.987811189480917,-0.5464521946338116,5.107817883086344,-8.294605583459026,-1.3879303313242732,-0.7928269234991013,-8.021659625169635
lead,1.0,1.0,1.0,1.0,1.0,1.0,1.0,1.0,1.0,1.0,1.0,1.0
19,-0.1042574116231899,-6.650536261168419,3.0278661162830804,10.889690233281447,-11.291924090832508,0.1442205587335356,1.4346063434742606,9.530186438988132,-8.759707403701146,-7.221983739391516,-6.575665930735368,-15.841054849501049
lead,1.0,1.0,1.0,1.0,1.0,1.0,1.0,1.0,1.0,1.0,1.0,1.0
20,4.14882223193733,-1.891473661325187,-0.328227483442377,12.298852433173124,-11.718131189262234,4.182295622342429,-3.596952776678668,19.789118679921582,-7.695697626780229,-6.040545576321325,-11.062538790941268,-18.06533125057429
lead,1.0,1.0,1.0,1.0,1.0,1.0,1.0,1.0,1.0,1.0,1.0,1.0
21,5.738561985956759,1.944168003928061,0.8649117505558216,8.935258723434142,-12.34919051722175,-3.49756192838957,-2.0842230031307825,12.129206556425878,-3.32028256446423,-5.927411306025033,-11.573665086625216,-11.481901384398148
lead,1.0,1.0,1.0,1.0,1.0,1.0,1.0,1.0,1.0,1.0,1.0,1.0
22,10.779708718918426,4.160786331321479,3.69363652180144,9.410930996215091,-17.14091054417973,-0.9995199161703372,-4.796598176364767,12.319554155961404,-1.458574459286518,-9.226666129816728,-14.548739450574931,-10.360965340484878
lead,1.0,1.0,1.0,1.0,1.0,1.0,1.0,1.0,1.0,1.0,1.0,1.0
23,-0.3207598823352585,-1.1532747899637534,1.6674454463854875,2.2678906588800603,-11.82323166980644,-5.682391562239238,-1.8492914121397332,8.811835347635096,-4.297565363667814,-5.981735162856595,-9.160777699314664,-7.796493714204185
lead,1.0,1.0,1.0,1.0,1.0,1.0,1.0,1.0,1.0,1.0,1.0,1.0
24,0.449357104238865,-10.263480505627754,4.925781144273415,0.5647133213170852,-7.552240277402053,-3.343769684123106,-5.457731053293175,10.256468706919687,-5.185660583851734,-6.395664102653902,-9.226906670650935,-3.074749308314986
lead,1.0,1.0,1.0,1.0,1.0,1.0,1.0,1.0,1.0,1.0,1.0,1.0
26,-2.865397208968972,-6.029553861019303,3.8925153651922217,2.2592068145817867,-5.665741746498004,1.444798422270262,-5.062173485139773,4.850356765187235,-1.7982291010166958,-4.336244894054729,-8.067844276861491,5.1641757233509225
lead,1.0,1.0,1.0,1.0,1.0,1.0,1.0,1.0,1.0,1.0,1.0,1.0
27,-3.04584279670452,-4.525186042723705,2.394298763819214,-2.223148590346521,-6.817466223098449,-1.5379459170708991,-3.28284294625276,3.7610449304912126,-1.358897971081415,-2.904095274884825,-6.290015079326938,2.60039234592584
lead,1.0,1.0,1.0,1.0,1.0,1.0,1.0,1.0,1.0,1.0,1.0,1.0
28,-1.8092802392732088,-2.056217592437785,0.391934021672142,-3.4758375220769167,-7.559942383157691,-2.7104249888358347,-2.3095665081078014,1.771635155352682,-0.087455285961267,-1.6748325420381656,-4.598342119774841,0.2025248369712538
lead,1.0,1.0,1.0,1.0,1.0,1.0,1.0,1.0,1.0,1.0,1.0,1.0
29,-0.3729151342766927,-3.866147249543728,3.463471501221277,-0.2387452933957121,-6.055867939740653,-3.769544776178148,-2.2714101627523458,2.9429713382764384,0.2328297863766609,-1.893172033018024,-1.1117868228766707,2.02891248339302
lead,1.0,1.0,1.0,1.0,1.0,1.0,1.0,1.0,1.0,1.0,1.0,1.0
30,0.213904663733646,-3.3022967558376464,2.885743032566288,2.2470422104989227,-4.661651620507496,-4.334704235526933,-1.356976432191833,2.2646956153774367,0.4420276036876497,-1.3904402763008583,1.9359951602159329,1.3977857894637702
lead,1.0,1.0,1.0,1.0,1.0,1.0,1.0,1.0,1.0,1.0,1.0,1.0
31,-0.0091183983281141,-2.433497038219571,3.0926046831071665,8.123153430220668,-1.4721040011919253,-3.195761280104639,-0.7780192469594186,2.360691604670998,0.1891183463644261,-1.2348496769283603,3.4559122542044247,2.21893938460608
lead,1.0,1.0,1.0,1.0,1.0,1.0,1.0,1.0,1.0,1.0,1.0,1.0
32,0.2312536555459789,-2.3045877472106997,3.542629147417055,16.665845485177012,-0.985948071474006,-2.728801827349098,-0.4337851069403421,3.310140227895228,-0.1306528943657328,-1.1946852180670362,3.902419050506908,1.4645560738274743
lead,1.0,1.0,1.0,1.0,1.0,1.0,1.0,1.0,1.0,1.0,1.0,1.0
33,2.1105003011305,1.731766176496122,-5.741907314039026,2.350383551779999,-9.039505086556163,-0.6313823142377034,0.2100326765713743,4.647691357325678,-0.7468362414065608,-1.2026399880258287,1.6458763614393734,-8.771213463801091
lead,1.0,1.0,1.0,1.0,1.0,1.0,1.0,1.0,1.0,1.0,1.0,1.0
40,3.0388187259891217,1.602591830789467,-0.7356709918602682,-6.11782039374112,-4.6628286121389255,-2.717854627058924,-1.3529965841655085,0.1392960781171185,-0.0595149338818196,-1.2119034007219294,-3.2133750331573463,-6.554756301447176
lead,1.0,1.0,1.0,1.0,1.0,1.0,1.0,1.0,1.0,1.0,1.0,1.0
41,-1.4780540236638473,0.7608225890785881,-0.3041039129067141,-5.823704982539395,-4.812798273506782,-3.1671894854096982,-0.7592740168910035,0.5772511052623241,0.0048250193915212,-0.4498296195893119,-2.878027434619302,-6.859596408004337
lead,1.0,1.0,1.0,1.0,1.0,1.0,1.0,1.0,1.0,1.0,1.0,1.0
42,0.9338601846408264,3.1220729444277997,1.7617383151816193,-7.038067970333727,-7.316169791374088,-2.035785382277539,-1.8614922580779776,0.7370385490427739,-0.0884423009596597,-1.4120734987564758,0.1029089370210643,-10.833568510484294
lead,1.0,1.0,1.0,1.0,1.0,1.0,1.0,1.0,1.0,1.0,1.0,1.0
43,-1.475810580909443,0.3509629001344242,-0.7869387811781744,-1.9752505192495715,-2.4887961069263955,-0.9815172260157012,-0.9047375752787506,0.5033656246535783,-0.1876416545248499,-1.5691867224769294,-0.3731090261882173,-1.542448122893759
lead,1.0,1.0,1.0,1.0,1.0,1.0,1.0,1.0,1.0,1.0,1.0,1.0
44,-0.7978588908359721,0.5840906171663581,0.4014442387166016,-2.7557252269932717,-5.129392957840524,-1.4351196760352116,-1.2312072350451415,0.9173564900560612,-0.570956874822526,-1.6932742345572849,1.3799888929374298,-2.422324008187653
lead,1.0,1.0,1.0,1.0,1.0,1.0,1.0,1.0,1.0,1.0,1.0,1.0
45,0.040417045652329,1.5435082342324449,-4.597691096054104,-4.539335292298488,-8.527955135253599,-0.8294817311317232,-0.0036998489773285,3.89421002478411,-0.9492857511802828,-1.4429565402582758,4.001861852379849,-10.070395966594072
lead,1.0,1.0,1.0,1.0,1.0,1.0,1.0,1.0,1.0,1.0,1.0,1.0
50,-0.037069967053566,-1.579796473797888,-0.2739926599899844,-7.277884796630975,-6.624006342560188,-1.978614884855374,-1.5518595455891036,0.6184247356870998,-0.2590161065069488,-0.5277709567699392,-2.9727607005980783,-11.924277504898644
lead,1.0,1.0,1.0,1.0,1.0,1.0,1.0,1.0,1.0,1.0,1.0,1.0
51,-3.241257497459658,6.311319644590291,-0.4252239150533636,-10.453006528287585,-7.368503082221118,-0.9052924000392568,-3.844492224691717,0.5340738597114719,-0.0809096540563602,0.6929525420615302,-1.7369653962569584,-9.780008028701785
lead,1.0,1.0,1.0,1.0,1.0,1.0,1.0,1.0,1.0,1.0,1.0,1.0
52,-4.899770695034865,2.730714602769781,-6.839623416633639,-11.05238844436218,-10.210977468077589,-0.1578394589547981,-2.938009209643731,1.6682432114093035,-1.0754387483039614,-0.3421450546083698,-0.6949868401752939,-10.834438243453938
lead,1.0,1.0,1.0,1.0,1.0,1.0,1.0,1.0,1.0,1.0,1.0,1.0
53,-3.1523957806486425,-0.1100334486427959,-5.84672863170803,-9.399656281477975,-10.66999425411929,-1.221156987800674,-1.9608608526271405,1.302414174099351,-0.6697545433548308,-0.6598105562352369,-2.042918223321877,-12.433874646829034
lead,1.0,1.0,1.0,1.0,1.0,1.0,1.0,1.0,1.0,1.0,1.0,1.0
54,-2.6601021650423515,0.8269199334589415,-2.027261235675312,-5.894542314948312,-10.540020284594087,-1.4803670300043177,-2.2494528963465155,2.815303762114993,-0.8192760623561448,-1.3407509672115925,-3.4058308662129178,-8.41634575493123
lead,1.0,1.0,1.0,1.0,1.0,1.0,1.0,1.0,1.0,1.0,1.0,1.0
55,-2.7291939415684947,0.2954240513544541,-0.6282007594930784,-4.171929633982539,-8.847835225752894,-1.4283325793352604,-1.0723773130424108,4.2727875730860125,-1.2328821368211025,-0.5500989515970738,-4.145345994636015,-6.720415422441875
lead,1.0,1.0,1.0,1.0,1.0,1.0,1.0,1.0,1.0,1.0,1.0,1.0
56,-2.4324125258920994,-0.8673460242677934,-0.5912866620511216,-2.3859780434711726,-8.645683856869935,-3.275895926745254,-1.041434055058461,2.3718751842588968,-1.2835073478239691,-2.36777331665786,-5.195900984898204,-2.9353787978060253
lead,1.0,1.0,1.0,1.0,1.0,1.0,1.0,1.0,1.0,1.0,1.0,1.0
57,-0.0865951719972489,-2.252489117759249,-0.2152980944073179,-0.0465879459402613,-7.764079383011758,-2.967969308722913,-0.3887525811641091,5.150609093267744,-2.7664913145969607,-1.8487098562829989,-3.829230540827765,-5.08259866733271
lead,1.0,1.0,1.0,1.0,1.0,1.0,1.0,1.0,1.0,1.0,1.0,1.0
58,-2.304066482025787,-1.848379782371362,-0.0700536248290322,3.0206578433182965,-10.239661432105072,0.9810692595575472,1.4590762248011342,2.4897375277854543,-5.0273012412031655,-2.50497065094573,-3.693631606625128,-9.39031124685109
lead,1.0,1.0,1.0,1.0,1.0,1.0,1.0,1.0,1.0,1.0,1.0,1.0
60,-0.8228017443291636,-2.9535973568924447,-0.0476145403563314,-3.688901657463025,-8.084957416111742,-3.5260315438458227,-2.3275043202336807,1.914506143148068,0.0046764094823976,-1.4407601221579251,-4.498156939530029,-1.877465330339347
lead,1.0,1.0,1.0,1.0,1.0,1.0,1.0,1.0,1.0,1.0,1.0,1.0
61,-0.2852970276427723,-1.7341287807266077,1.1181722582730216,-2.3342395523639152,-9.899338715100066,-4.965800025400513,-1.0684402021252055,2.36601899856643,-1.106730146719203,-1.9475070723360988,-6.667955695426404,0.1403856308119769
lead,1.0,1.0,1.0,1.0,1.0,1.0,1.0,1.0,1.0,1.0,1.0,1.0
62,-0.6409755688912864,-7.2055691039450505,2.2407764434383712,-1.3926613810991986,-8.025013668518586,-5.739398913293497,-3.835361305536928,6.538257916507055,-3.021239825210415,-3.205518449441647,-6.755397915541908,2.304527004285509
lead,1.0,1.0,1.0,1.0,1.0,1.0,1.0,1.0,1.0,1.0,1.0,1.0
63,-2.3116945893720966,-9.62863530275614,2.9270873868660523,2.1871279495319347,-2.7712720375366726,-2.004474509256499,-5.735337169408107,7.70185315264716,-3.109191816143868,-3.859539079972283,-6.019168179513599,5.885772995531914
lead,1.0,1.0,1.0,1.0,1.0,1.0,1.0,1.0,1.0,1.0,1.0,1.0
64,-2.544479204652325,-12.109990181801413,3.801913556662895,2.415887880317092,-1.1647189578392618,-1.9474591426061472,-6.1010595912140575,8.711580625386194,-3.91374722845679,-4.342085207957384,-5.746185291662393,5.366992761091349
lead,1.0,1.0,1.0,1.0,1.0,1.0,1.0,1.0,1.0,1.0,1.0,1.0
65,-5.247176843926307,-11.107478050257344,3.5453718148178,-1.1086136667107056,-9.269906118276465,-5.239983152943881,-4.020654320087059,5.661518338708142,-5.167714623637283,-5.253763672905088,-7.0731211486617225,-5.326199618993278
lead,1.0,1.0,1.0,1.0,1.0,1.0,1.0,1.0,1.0,1.0,1.0,1.0
66,-2.377604136081734,-14.960459038265858,5.059051508535246,2.054889796314028,-0.2196273557775847,-1.4321328489880605,-6.356627346609695,9.759551905719007,-4.693187775071096,-5.0223336645344325,-5.841089382719338,5.374074871238862
lead,1.0,1.0,1.0,1.0,1.0,1.0,1.0,1.0,1.0,1.0,1.0,1.0
67,-3.4004672863441137,-9.171463951627173,3.4121431045573694,2.8375497273118597,-1.657140159315979,-0.6103189836395204,-5.944930483662452,7.240438874441693,-2.804681483925161,-4.154220580574764,-5.98228163559477,6.498135121584513
lead,1.0,1.0,1.0,1.0,1.0,1.0,1.0,1.0,1.0,1.0,1.0,1.0
68,-1.0910140448078411,-14.993893828483882,5.646431899491723,0.9348208696142276,-1.8396690375100708,0.7508242607230572,-6.978271091893048,9.566760101693625,-4.335643344899216,-5.552483743455361,-6.88698858310019,6.5674563657036815
